digraph Tree {
node [shape=box, style="filled, rounded", color="black", fontname=helvetica] ;
edge [fontname=helvetica] ;
0 [label="ta <= 0.186\ngini = 0.596\nsamples = 653\nvalue = [324, 245, 84]\nclass = 1", fillcolor="#e5813931"] ;
1 [label="skewness <= -1.363\ngini = 0.287\nsamples = 301\nvalue = [250, 46, 5]\nclass = 1", fillcolor="#e58139cc"] ;
0 -> 1 [labeldistance=2.5, labelangle=45, headlabel="True"] ;
3 [label="ta <= -1.347\ngini = 0.245\nsamples = 49\nvalue = [7, 42, 0]\nclass = 2", fillcolor="#39e581d4"] ;
1 -> 3 ;
21 [label="gini = 0.0\nsamples = 35\nvalue = [0, 35, 0]\nclass = 2", fillcolor="#39e581ff"] ;
3 -> 21 ;
22 [label="max_minus_min <= 0.825\ngini = 0.5\nsamples = 14\nvalue = [7, 7, 0]\nclass = 1", fillcolor="#e5813900"] ;
3 -> 22 ;
23 [label="gini = 0.0\nsamples = 7\nvalue = [0, 7, 0]\nclass = 2", fillcolor="#39e581ff"] ;
22 -> 23 ;
24 [label="gini = 0.0\nsamples = 7\nvalue = [7, 0, 0]\nclass = 1", fillcolor="#e58139ff"] ;
22 -> 24 ;
4 [label="max_minus_min <= 3.302\ngini = 0.07\nsamples = 252\nvalue = [243, 4, 5]\nclass = 1", fillcolor="#e58139f6"] ;
1 -> 4 ;
15 [label="ta <= 0.02\ngini = 0.04\nsamples = 248\nvalue = [243, 4, 1]\nclass = 1", fillcolor="#e58139fa"] ;
4 -> 15 ;
45 [label="gini = 0.0\nsamples = 229\nvalue = [229, 0, 0]\nclass = 1", fillcolor="#e58139ff"] ;
15 -> 45 ;
46 [label="max_minus_min <= 0.568\ngini = 0.41\nsamples = 19\nvalue = [14, 4, 1]\nclass = 1", fillcolor="#e58139aa"] ;
15 -> 46 ;
47 [label="gini = 0.304\nsamples = 17\nvalue = [14, 2, 1]\nclass = 1", fillcolor="#e58139cc"] ;
46 -> 47 ;
48 [label="gini = 0.0\nsamples = 2\nvalue = [0, 2, 0]\nclass = 2", fillcolor="#39e581ff"] ;
46 -> 48 ;
16 [label="gini = 0.0\nsamples = 4\nvalue = [0, 0, 4]\nclass = 3", fillcolor="#8139e5ff"] ;
4 -> 16 ;
2 [label="skewness <= 0.024\ngini = 0.586\nsamples = 352\nvalue = [74, 199, 79]\nclass = 2", fillcolor="#39e58170"] ;
0 -> 2 [labeldistance=2.5, labelangle=-45, headlabel="False"] ;
5 [label="max_minus_min <= -0.195\ngini = 0.236\nsamples = 145\nvalue = [10, 126, 9]\nclass = 2", fillcolor="#39e581db"] ;
2 -> 5 ;
17 [label="meanTemp <= 0.403\ngini = 0.099\nsamples = 115\nvalue = [0, 109, 6]\nclass = 2", fillcolor="#39e581f1"] ;
5 -> 17 ;
41 [label="gini = 0.444\nsamples = 3\nvalue = [0, 1, 2]\nclass = 3", fillcolor="#8139e57f"] ;
17 -> 41 ;
42 [label="ta <= 1.319\ngini = 0.069\nsamples = 112\nvalue = [0, 108, 4]\nclass = 2", fillcolor="#39e581f6"] ;
17 -> 42 ;
49 [label="gini = 0.053\nsamples = 111\nvalue = [0, 108, 3]\nclass = 2", fillcolor="#39e581f8"] ;
42 -> 49 ;
50 [label="gini = 0.0\nsamples = 1\nvalue = [0, 0, 1]\nclass = 3", fillcolor="#8139e5ff"] ;
42 -> 50 ;
18 [label="skewness <= -0.683\ngini = 0.558\nsamples = 30\nvalue = [10, 17, 3]\nclass = 2", fillcolor="#39e58159"] ;
5 -> 18 ;
25 [label="meanTemp <= 1.214\ngini = 0.24\nsamples = 15\nvalue = [1, 13, 1]\nclass = 2", fillcolor="#39e581db"] ;
18 -> 25 ;
55 [label="gini = 0.133\nsamples = 14\nvalue = [1, 13, 0]\nclass = 2", fillcolor="#39e581eb"] ;
25 -> 55 ;
56 [label="gini = 0.0\nsamples = 1\nvalue = [0, 0, 1]\nclass = 3", fillcolor="#8139e5ff"] ;
25 -> 56 ;
26 [label="gini = 0.551\nsamples = 15\nvalue = [9, 4, 2]\nclass = 1", fillcolor="#e5813974"] ;
18 -> 26 ;
6 [label="meanTemp <= -0.033\ngini = 0.666\nsamples = 207\nvalue = [64, 73, 70]\nclass = 2", fillcolor="#39e58106"] ;
2 -> 6 ;
7 [label="max_minus_min <= -0.633\ngini = 0.165\nsamples = 33\nvalue = [3, 30, 0]\nclass = 2", fillcolor="#39e581e6"] ;
6 -> 7 ;
19 [label="gini = 0.0\nsamples = 30\nvalue = [0, 30, 0]\nclass = 2", fillcolor="#39e581ff"] ;
7 -> 19 ;
20 [label="gini = 0.0\nsamples = 3\nvalue = [3, 0, 0]\nclass = 1", fillcolor="#e58139ff"] ;
7 -> 20 ;
8 [label="meanTemp <= 0.484\ngini = 0.654\nsamples = 174\nvalue = [61, 43, 70]\nclass = 3", fillcolor="#8139e514"] ;
6 -> 8 ;
9 [label="gini = 0.145\nsamples = 38\nvalue = [3, 0, 35]\nclass = 3", fillcolor="#8139e5e9"] ;
8 -> 9 ;
10 [label="max_minus_min <= -0.766\ngini = 0.652\nsamples = 136\nvalue = [58, 43, 35]\nclass = 1", fillcolor="#e5813929"] ;
8 -> 10 ;
11 [label="skewness <= 1.002\ngini = 0.601\nsamples = 67\nvalue = [13, 36, 18]\nclass = 2", fillcolor="#39e5815e"] ;
10 -> 11 ;
13 [label="meanTemp <= 0.825\ngini = 0.204\nsamples = 36\nvalue = [2, 32, 2]\nclass = 2", fillcolor="#39e581e1"] ;
11 -> 13 ;
33 [label="gini = 0.0\nsamples = 2\nvalue = [2, 0, 0]\nclass = 1", fillcolor="#e58139ff"] ;
13 -> 33 ;
34 [label="meanTemp <= 1.603\ngini = 0.111\nsamples = 34\nvalue = [0, 32, 2]\nclass = 2", fillcolor="#39e581ef"] ;
13 -> 34 ;
35 [label="gini = 0.0\nsamples = 32\nvalue = [0, 32, 0]\nclass = 2", fillcolor="#39e581ff"] ;
34 -> 35 ;
36 [label="gini = 0.0\nsamples = 2\nvalue = [0, 0, 2]\nclass = 3", fillcolor="#8139e5ff"] ;
34 -> 36 ;
14 [label="ta <= 1.132\ngini = 0.591\nsamples = 31\nvalue = [11, 4, 16]\nclass = 3", fillcolor="#8139e540"] ;
11 -> 14 ;
29 [label="skewness <= 1.491\ngini = 0.62\nsamples = 20\nvalue = [10, 4, 6]\nclass = 1", fillcolor="#e5813949"] ;
14 -> 29 ;
31 [label="meanTemp <= 0.838\ngini = 0.58\nsamples = 10\nvalue = [1, 4, 5]\nclass = 3", fillcolor="#8139e52a"] ;
29 -> 31 ;
51 [label="gini = 0.571\nsamples = 7\nvalue = [1, 4, 2]\nclass = 2", fillcolor="#39e58166"] ;
31 -> 51 ;
52 [label="gini = 0.0\nsamples = 3\nvalue = [0, 0, 3]\nclass = 3", fillcolor="#8139e5ff"] ;
31 -> 52 ;
32 [label="max_minus_min <= -1.088\ngini = 0.18\nsamples = 10\nvalue = [9, 0, 1]\nclass = 1", fillcolor="#e58139e3"] ;
29 -> 32 ;
53 [label="gini = 0.0\nsamples = 1\nvalue = [0, 0, 1]\nclass = 3", fillcolor="#8139e5ff"] ;
32 -> 53 ;
54 [label="gini = 0.0\nsamples = 9\nvalue = [9, 0, 0]\nclass = 1", fillcolor="#e58139ff"] ;
32 -> 54 ;
30 [label="gini = 0.165\nsamples = 11\nvalue = [1, 0, 10]\nclass = 3", fillcolor="#8139e5e6"] ;
14 -> 30 ;
12 [label="ta <= 0.921\ngini = 0.504\nsamples = 69\nvalue = [45, 7, 17]\nclass = 1", fillcolor="#e5813989"] ;
10 -> 12 ;
27 [label="skewness <= 0.092\ngini = 0.354\nsamples = 47\nvalue = [37, 3, 7]\nclass = 1", fillcolor="#e58139bf"] ;
12 -> 27 ;
43 [label="gini = 0.625\nsamples = 4\nvalue = [1, 2, 1]\nclass = 2", fillcolor="#39e58155"] ;
27 -> 43 ;
44 [label="gini = 0.279\nsamples = 43\nvalue = [36, 1, 6]\nclass = 1", fillcolor="#e58139cf"] ;
27 -> 44 ;
28 [label="max_minus_min <= -0.563\ngini = 0.628\nsamples = 22\nvalue = [8, 4, 10]\nclass = 3", fillcolor="#8139e524"] ;
12 -> 28 ;
37 [label="gini = 0.508\nsamples = 16\nvalue = [5, 1, 10]\nclass = 3", fillcolor="#8139e574"] ;
28 -> 37 ;
38 [label="skewness <= 0.763\ngini = 0.5\nsamples = 6\nvalue = [3, 3, 0]\nclass = 1", fillcolor="#e5813900"] ;
28 -> 38 ;
39 [label="gini = 0.0\nsamples = 3\nvalue = [0, 3, 0]\nclass = 2", fillcolor="#39e581ff"] ;
38 -> 39 ;
40 [label="gini = 0.0\nsamples = 3\nvalue = [3, 0, 0]\nclass = 1", fillcolor="#e58139ff"] ;
38 -> 40 ;
}